<?xml version="1.0"?>
<opencv_storage>
<stage1>
  <maxWeakCount>14</maxWeakCount>
  <stageThreshold>-8.1913357973098755e-01</stageThreshold>
  <weakClassifiers>
    <_>
      <internalNodes>
        0 -1 159812 -1.4639275614172220e-03</internalNodes>
      <leafValues>
        -7.4436092376708984e-01 1.4842578768730164e-01</leafValues></_>
    <_>
      <internalNodes>
        0 -1 95302 6.4360573887825012e-03</internalNodes>
      <leafValues>
        -2.5281366705894470e-01 4.5932072401046753e-01</leafValues></_>
    <_>
      <internalNodes>
        0 -1 80936 1.1726667173206806e-02</internalNodes>
      <leafValues>
        -1.3896697759628296e-01 5.7911229133605957e-01</leafValues></_>
    <_>
      <internalNodes>
        0 -1 97032 5.2943341434001923e-02</internalNodes>
      <leafValues>
        -3.1333997845649719e-01 4.3906244635581970e-01</leafValues></_>
    <_>
      <internalNodes>
        0 -1 28584 -9.0277083218097687e-02</internalNodes>
      <leafValues>
        7.7282756567001343e-01 -6.5900810062885284e-02</leafValues></_>
    <_>
      <internalNodes>
        0 -1 21727 -1.8662035465240479e-02</internalNodes>
      <leafValues>
        4.7629028558731079e-01 -2.5486978888511658e-01</leafValues></_>
    <_>
      <internalNodes>
        0 -1 106007 -1.8605303019285202e-02</internalNodes>
      <leafValues>
        4.8834228515625000e-01 -2.0712304115295410e-01</leafValues></_>
    <_>
      <internalNodes>
        0 -1 145347 1.2159184552729130e-03</internalNodes>
      <leafValues>
        -1.4397239685058594e-01 4.7010183334350586e-01</leafValues></_>
    <_>
      <internalNodes>
        0 -1 8239 -4.0063289925456047e-03</internalNodes>
      <leafValues>
        4.6765723824501038e-01 -2.1841499209403992e-01</leafValues></_>
    <_>
      <internalNodes>
        0 -1 18889 5.2604298107326031e-03</internalNodes>
      <leafValues>
        -2.0355789363384247e-01 5.5674993991851807e-01</leafValues></_>
    <_>
      <internalNodes>
        0 -1 160076 -8.3385244943201542e-04</internalNodes>
      <leafValues>
        -6.9657778739929199e-01 1.6704311966896057e-01</leafValues></_>
    <_>
      <internalNodes>
        0 -1 97240 1.0170665569603443e-02</internalNodes>
      <leafValues>
        -1.9794285297393799e-01 5.0187855958938599e-01</leafValues></_>
    <_>
      <internalNodes>
        0 -1 141789 -4.3815746903419495e-03</internalNodes>
      <leafValues>
        5.5112475156784058e-01 -1.7918539047241211e-01</leafValues></_>
    <_>
      <internalNodes>
        0 -1 146310 8.7756458669900894e-03</internalNodes>
      <leafValues>
        -1.7043830454349518e-01 6.3829702138900757e-01</leafValues></_></weakClassifiers></stage1>
</opencv_storage>
