<?xml version="1.0"?>
<opencv_storage>
<stage12>
  <maxWeakCount>24</maxWeakCount>
  <stageThreshold>-9.6869474649429321e-01</stageThreshold>
  <weakClassifiers>
    <_>
      <internalNodes>
        0 -1 1036 -2.1942767500877380e-01</internalNodes>
      <leafValues>
        6.8253970146179199e-01 -1.2759643793106079e-01</leafValues></_>
    <_>
      <internalNodes>
        0 -1 49476 1.7547706374898553e-04</internalNodes>
      <leafValues>
        1.7510576546192169e-01 -4.6923431754112244e-01</leafValues></_>
    <_>
      <internalNodes>
        0 -1 38060 -7.2366907261312008e-04</internalNodes>
      <leafValues>
        -4.4807562232017517e-01 1.5714649856090546e-01</leafValues></_>
    <_>
      <internalNodes>
        0 -1 139540 2.5310758501291275e-02</internalNodes>
      <leafValues>
        -2.4915996193885803e-01 3.3450940251350403e-01</leafValues></_>
    <_>
      <internalNodes>
        0 -1 108998 1.6634455323219299e-01</internalNodes>
      <leafValues>
        -2.2552266716957092e-02 8.2128626108169556e-01</leafValues></_>
    <_>
      <internalNodes>
        0 -1 12527 -5.7657673954963684e-02</internalNodes>
      <leafValues>
        4.9957638978958130e-01 -1.3581898808479309e-01</leafValues></_>
    <_>
      <internalNodes>
        0 -1 66963 -5.3600043058395386e-02</internalNodes>
      <leafValues>
        4.7447204589843750e-01 -1.2986744940280914e-01</leafValues></_>
    <_>
      <internalNodes>
        0 -1 159742 1.8403937574476004e-03</internalNodes>
      <leafValues>
        9.6404761075973511e-02 -6.6724509000778198e-01</leafValues></_>
    <_>
      <internalNodes>
        0 -1 70718 -3.9116741390898824e-04</internalNodes>
      <leafValues>
        -5.2125826478004456e-02 1.</leafValues></_>
    <_>
      <internalNodes>
        0 -1 161474 -6.5858382731676102e-03</internalNodes>
      <leafValues>
        1.4600634574890137e-01 -5.3547364473342896e-01</leafValues></_>
    <_>
      <internalNodes>
        0 -1 135669 -6.1105132102966309e-02</internalNodes>
      <leafValues>
        4.9591743946075439e-01 -1.0665977746248245e-01</leafValues></_>
    <_>
      <internalNodes>
        0 -1 32479 3.8861837238073349e-02</internalNodes>
      <leafValues>
        -1.3043066859245300e-01 4.3412998318672180e-01</leafValues></_>
    <_>
      <internalNodes>
        0 -1 1321 -3.9620541036128998e-02</internalNodes>
      <leafValues>
        5.1152646541595459e-01 -1.0223529487848282e-01</leafValues></_>
    <_>
      <internalNodes>
        0 -1 87793 4.6012634411454201e-03</internalNodes>
      <leafValues>
        -1.3057726621627808e-01 4.5682340860366821e-01</leafValues></_>
    <_>
      <internalNodes>
        0 -1 73777 3.5736076824832708e-05</internalNodes>
      <leafValues>
        -2.5211572647094727e-01 2.4599903821945190e-01</leafValues></_>
    <_>
      <internalNodes>
        0 -1 112087 8.5640192031860352e-02</internalNodes>
      <leafValues>
        -9.8522514104843140e-02 4.8807048797607422e-01</leafValues></_>
    <_>
      <internalNodes>
        0 -1 2128 -2.7775068883784115e-04</internalNodes>
      <leafValues>
        -5.0648409128189087e-01 1.0468012094497681e-01</leafValues></_>
    <_>
      <internalNodes>
        0 -1 4 1.9984255777671933e-04</internalNodes>
      <leafValues>
        1.3664811849594116e-01 -3.9619755744934082e-01</leafValues></_>
    <_>
      <internalNodes>
        0 -1 50382 -1.2020611902698874e-03</internalNodes>
      <leafValues>
        8.4558345377445221e-02 -5.6501626968383789e-01</leafValues></_>
    <_>
      <internalNodes>
        0 -1 5833 -1.3982698146719486e-04</internalNodes>
      <leafValues>
        -3.7111109495162964e-01 1.5103453397750854e-01</leafValues></_>
    <_>
      <internalNodes>
        0 -1 120146 -5.0738584250211716e-03</internalNodes>
      <leafValues>
        -6.6698819398880005e-01 9.1005787253379822e-02</leafValues></_>
    <_>
      <internalNodes>
        0 -1 80 4.2542503215372562e-03</internalNodes>
      <leafValues>
        6.0146816074848175e-02 -7.2410029172897339e-01</leafValues></_>
    <_>
      <internalNodes>
        0 -1 137856 -2.2404305636882782e-03</internalNodes>
      <leafValues>
        8.5524284839630127e-01 -7.8384540975093842e-02</leafValues></_>
    <_>
      <internalNodes>
        0 -1 3133 -1.5775404172018170e-03</internalNodes>
      <leafValues>
        -8.0931353569030762e-01 8.4567941725254059e-02</leafValues></_></weakClassifiers></stage12>
</opencv_storage>
