<?xml version="1.0"?>
<opencv_storage>
<stage29>
  <maxWeakCount>47</maxWeakCount>
  <stageThreshold>-7.0945894718170166e-01</stageThreshold>
  <weakClassifiers>
    <_>
      <internalNodes>
        0 -1 134494 -4.1912939399480820e-02</internalNodes>
      <leafValues>
        6.8750000000000000e-01 -5.9782609343528748e-02</leafValues></_>
    <_>
      <internalNodes>
        0 -1 135022 -2.5892727077007294e-02</internalNodes>
      <leafValues>
        -7.3605996370315552e-01 3.0801914632320404e-02</leafValues></_>
    <_>
      <internalNodes>
        0 -1 134968 -2.2718533873558044e-02</internalNodes>
      <leafValues>
        1. -1.1699521914124489e-02</leafValues></_>
    <_>
      <internalNodes>
        0 -1 134968 -2.1195337176322937e-02</internalNodes>
      <leafValues>
        -1. 7.1647725999355316e-03</leafValues></_>
    <_>
      <internalNodes>
        0 -1 134968 -2.0967707037925720e-02</internalNodes>
      <leafValues>
        1. -1.5120366588234901e-03</leafValues></_>
    <_>
      <internalNodes>
        0 -1 134968 -2.0722141489386559e-02</internalNodes>
      <leafValues>
        -1. 4.4124303385615349e-03</leafValues></_>
    <_>
      <internalNodes>
        0 -1 134968 -2.0490501075983047e-02</internalNodes>
      <leafValues>
        1. -4.7979396767914295e-03</leafValues></_>
    <_>
      <internalNodes>
        0 -1 134968 -2.0227281376719475e-02</internalNodes>
      <leafValues>
        -1. 2.8571060393005610e-03</leafValues></_>
    <_>
      <internalNodes>
        0 -1 134968 -1.9949030131101608e-02</internalNodes>
      <leafValues>
        1. -4.6082870103418827e-03</leafValues></_>
    <_>
      <internalNodes>
        0 -1 134968 -1.8899424001574516e-02</internalNodes>
      <leafValues>
        -1. 4.3165143579244614e-03</leafValues></_>
    <_>
      <internalNodes>
        0 -1 134968 -1.8662258982658386e-02</internalNodes>
      <leafValues>
        1. -1.5455682296305895e-03</leafValues></_>
    <_>
      <internalNodes>
        0 -1 134968 -1.8514569848775864e-02</internalNodes>
      <leafValues>
        -1. 1.4471767935901880e-03</leafValues></_>
    <_>
      <internalNodes>
        0 -1 134968 -1.8292177468538284e-02</internalNodes>
      <leafValues>
        1. -1.5503865433856845e-03</leafValues></_>
    <_>
      <internalNodes>
        0 -1 134968 -1.7804797738790512e-02</internalNodes>
      <leafValues>
        -1. 2.9069755692034960e-03</leafValues></_>
    <_>
      <internalNodes>
        0 -1 140289 -1.3003665953874588e-02</internalNodes>
      <leafValues>
        9.4190371036529541e-01 -1.2506884522736073e-02</leafValues></_>
    <_>
      <internalNodes>
        0 -1 140271 -1.2148097157478333e-02</internalNodes>
      <leafValues>
        -8.2821869850158691e-01 4.0726140141487122e-03</leafValues></_>
    <_>
      <internalNodes>
        0 -1 140223 -1.0836264118552208e-02</internalNodes>
      <leafValues>
        7.6962685585021973e-01 -5.4782759398221970e-03</leafValues></_>
    <_>
      <internalNodes>
        0 -1 134950 -1.5546666458249092e-02</internalNodes>
      <leafValues>
        -7.5868433713912964e-01 1.0566338896751404e-03</leafValues></_>
    <_>
      <internalNodes>
        0 -1 140271 -1.1989958584308624e-02</internalNodes>
      <leafValues>
        7.5664454698562622e-01 -6.4557222649455070e-03</leafValues></_>
    <_>
      <internalNodes>
        0 -1 140271 -1.2148097157478333e-02</internalNodes>
      <leafValues>
        -8.1457817554473877e-01 7.0675136521458626e-03</leafValues></_>
    <_>
      <internalNodes>
        0 -1 140271 -1.2310767546296120e-02</internalNodes>
      <leafValues>
        7.9081791639328003e-01 -7.2377147153019905e-03</leafValues></_>
    <_>
      <internalNodes>
        0 -1 152044 -7.0974649861454964e-03</internalNodes>
      <leafValues>
        -9.3914651870727539e-01 -4.8489696346223354e-03</leafValues></_>
    <_>
      <internalNodes>
        0 -1 161902 1.2191727757453918e-02</internalNodes>
      <leafValues>
        6.9242797791957855e-02 -5.7779216766357422e-01</leafValues></_>
    <_>
      <internalNodes>
        0 -1 23293 1.2356275692582130e-02</internalNodes>
      <leafValues>
        3.8972068578004837e-02 -6.6736388206481934e-01</leafValues></_>
    <_>
      <internalNodes>
        0 -1 147283 -1.3490121811628342e-02</internalNodes>
      <leafValues>
        -5.9843432903289795e-01 2.4546885862946510e-02</leafValues></_>
    <_>
      <internalNodes>
        0 -1 5898 -2.9701888561248779e-03</internalNodes>
      <leafValues>
        -3.6598095297813416e-01 1.0019636899232864e-01</leafValues></_>
    <_>
      <internalNodes>
        0 -1 79162 -4.0829449892044067e-02</internalNodes>
      <leafValues>
        1.4736805856227875e-01 -3.1866702437400818e-01</leafValues></_>
    <_>
      <internalNodes>
        0 -1 104412 -1.4461944811046124e-03</internalNodes>
      <leafValues>
        -4.9425322562456131e-02 7.1930766105651855e-01</leafValues></_>
    <_>
      <internalNodes>
        0 -1 121195 9.0366101358085871e-04</internalNodes>
      <leafValues>
        -1.4262673258781433e-01 2.8861433267593384e-01</leafValues></_>
    <_>
      <internalNodes>
        0 -1 68192 -1.6842797398567200e-02</internalNodes>
      <leafValues>
        -5.8060544729232788e-01 8.1320881843566895e-02</leafValues></_>
    <_>
      <internalNodes>
        0 -1 87939 4.7913286834955215e-03</internalNodes>
      <leafValues>
        6.6681876778602600e-02 -4.9276447296142578e-01</leafValues></_>
    <_>
      <internalNodes>
        0 -1 129952 -2.3256089538335800e-02</internalNodes>
      <leafValues>
        4.0489283204078674e-01 -1.1019165068864822e-01</leafValues></_>
    <_>
      <internalNodes>
        0 -1 80491 -2.2330604493618011e-02</internalNodes>
      <leafValues>
        -1.2255930155515671e-01 3.4572663903236389e-01</leafValues></_>
    <_>
      <internalNodes>
        0 -1 136383 -8.2327164709568024e-02</internalNodes>
      <leafValues>
        1.5113674104213715e-01 -3.5206714272499084e-01</leafValues></_>
    <_>
      <internalNodes>
        0 -1 38928 -9.9262979347258806e-05</internalNodes>
      <leafValues>
        -3.4346923232078552e-01 1.1290488392114639e-01</leafValues></_>
    <_>
      <internalNodes>
        0 -1 103385 -1.5530653297901154e-02</internalNodes>
      <leafValues>
        -5.7924617081880569e-02 8.4242463111877441e-01</leafValues></_>
    <_>
      <internalNodes>
        0 -1 148959 3.1460747122764587e-02</internalNodes>
      <leafValues>
        6.0594711452722549e-02 -8.7522792816162109e-01</leafValues></_>
    <_>
      <internalNodes>
        0 -1 121424 1.1941677657887340e-03</internalNodes>
      <leafValues>
        8.0334991216659546e-02 -4.6849697828292847e-01</leafValues></_>
    <_>
      <internalNodes>
        0 -1 10636 -8.4067992866039276e-03</internalNodes>
      <leafValues>
        -5.8318579196929932e-01 6.7309223115444183e-02</leafValues></_>
    <_>
      <internalNodes>
        0 -1 158721 4.5770620927214622e-03</internalNodes>
      <leafValues>
        -1.1993400007486343e-01 3.6154276132583618e-01</leafValues></_>
    <_>
      <internalNodes>
        0 -1 157321 -4.2322548106312752e-03</internalNodes>
      <leafValues>
        -6.3334667682647705e-01 7.2792395949363708e-02</leafValues></_>
    <_>
      <internalNodes>
        0 -1 99283 6.5266445279121399e-02</internalNodes>
      <leafValues>
        1.6113254427909851e-01 -2.4411727488040924e-01</leafValues></_>
    <_>
      <internalNodes>
        0 -1 92515 6.8266759626567364e-05</internalNodes>
      <leafValues>
        -1.9810950756072998e-01 2.4965238571166992e-01</leafValues></_>
    <_>
      <internalNodes>
        0 -1 142588 2.9348605312407017e-03</internalNodes>
      <leafValues>
        -1.8579158186912537e-01 2.5804227590560913e-01</leafValues></_>
    <_>
      <internalNodes>
        0 -1 125752 -2.6801496278494596e-04</internalNodes>
      <leafValues>
        2.7259945869445801e-01 -1.3914723694324493e-01</leafValues></_>
    <_>
      <internalNodes>
        0 -1 121939 -2.9442338272929192e-03</internalNodes>
      <leafValues>
        3.7484323978424072e-01 -1.0620395094156265e-01</leafValues></_>
    <_>
      <internalNodes>
        0 -1 64686 -5.0226550549268723e-02</internalNodes>
      <leafValues>
        -7.5593996047973633e-01 7.0303201675415039e-02</leafValues></_></weakClassifiers></stage29>
</opencv_storage>
