<?xml version="1.0"?>
<opencv_storage>
<stage13>
  <maxWeakCount>23</maxWeakCount>
  <stageThreshold>-9.4648164510726929e-01</stageThreshold>
  <weakClassifiers>
    <_>
      <internalNodes>
        0 -1 26774 -1.5492510795593262e-01</internalNodes>
      <leafValues>
        6.8518519401550293e-01 -1.0693641752004623e-01</leafValues></_>
    <_>
      <internalNodes>
        0 -1 76276 -1.5515219420194626e-03</internalNodes>
      <leafValues>
        9.6494817733764648e-01 -5.2520897239446640e-02</leafValues></_>
    <_>
      <internalNodes>
        0 -1 2131 -4.0055756107904017e-04</internalNodes>
      <leafValues>
        -7.0452213287353516e-02 9.6340328454971313e-01</leafValues></_>
    <_>
      <internalNodes>
        0 -1 101811 -7.7301347628235817e-03</internalNodes>
      <leafValues>
        1.4454315602779388e-01 -5.3389042615890503e-01</leafValues></_>
    <_>
      <internalNodes>
        0 -1 112808 8.0513383727520704e-04</internalNodes>
      <leafValues>
        -1.2308151274919510e-01 6.5682226419448853e-01</leafValues></_>
    <_>
      <internalNodes>
        0 -1 0 -1.4515579096041620e-04</internalNodes>
      <leafValues>
        -3.2725334167480469e-01 1.9783371686935425e-01</leafValues></_>
    <_>
      <internalNodes>
        0 -1 19 -1.1088077444583178e-03</internalNodes>
      <leafValues>
        -4.1577026247978210e-01 1.4108359813690186e-01</leafValues></_>
    <_>
      <internalNodes>
        0 -1 95635 1.6885481309145689e-03</internalNodes>
      <leafValues>
        -6.4229644834995270e-02 9.0578728914260864e-01</leafValues></_>
    <_>
      <internalNodes>
        0 -1 150288 8.0581015208736062e-04</internalNodes>
      <leafValues>
        -5.6919161230325699e-02 6.2473607063293457e-01</leafValues></_>
    <_>
      <internalNodes>
        0 -1 137622 1.1610763613134623e-03</internalNodes>
      <leafValues>
        -9.0101465582847595e-02 6.8435740470886230e-01</leafValues></_>
    <_>
      <internalNodes>
        0 -1 161573 1.5053698793053627e-02</internalNodes>
      <leafValues>
        8.4988318383693695e-02 -7.5858187675476074e-01</leafValues></_>
    <_>
      <internalNodes>
        0 -1 138275 1.0169479064643383e-03</internalNodes>
      <leafValues>
        -1.1015064269304276e-01 6.9630265235900879e-01</leafValues></_>
    <_>
      <internalNodes>
        0 -1 158665 8.5529679199680686e-04</internalNodes>
      <leafValues>
        -9.7440324723720551e-02 6.3299858570098877e-01</leafValues></_>
    <_>
      <internalNodes>
        0 -1 101655 1.5613337978720665e-02</internalNodes>
      <leafValues>
        -1.3623918592929840e-01 4.4683232903480530e-01</leafValues></_>
    <_>
      <internalNodes>
        0 -1 157939 4.3916940921917558e-04</internalNodes>
      <leafValues>
        1.2507826089859009e-01 -5.4288506507873535e-01</leafValues></_>
    <_>
      <internalNodes>
        0 -1 123276 1.4142516255378723e-01</internalNodes>
      <leafValues>
        -9.7912572324275970e-02 7.2202193737030029e-01</leafValues></_>
    <_>
      <internalNodes>
        0 -1 149866 5.6843424681574106e-04</internalNodes>
      <leafValues>
        -1.2837697565555573e-01 4.7638869285583496e-01</leafValues></_>
    <_>
      <internalNodes>
        0 -1 78640 1.4989357441663742e-03</internalNodes>
      <leafValues>
        -7.3296062648296356e-02 8.9806336164474487e-01</leafValues></_>
    <_>
      <internalNodes>
        0 -1 84139 1.3443192001432180e-03</internalNodes>
      <leafValues>
        -5.8462645858526230e-02 8.2347083091735840e-01</leafValues></_>
    <_>
      <internalNodes>
        0 -1 71549 1.1470355093479156e-03</internalNodes>
      <leafValues>
        1.2755705416202545e-01 -5.2753460407257080e-01</leafValues></_>
    <_>
      <internalNodes>
        0 -1 58474 -1.1787977069616318e-02</internalNodes>
      <leafValues>
        6.8190002441406250e-01 -1.0152750462293625e-01</leafValues></_>
    <_>
      <internalNodes>
        0 -1 10968 2.3183845914900303e-03</internalNodes>
      <leafValues>
        -1.8167106807231903e-01 3.9608782529830933e-01</leafValues></_>
    <_>
      <internalNodes>
        0 -1 40338 6.5322279930114746e-02</internalNodes>
      <leafValues>
        1.1414834856987000e-01 -5.8718705177307129e-01</leafValues></_></weakClassifiers></stage13>
</opencv_storage>
